{"parameters/fc1.weight":{"bins":[-0.4250549077987671,-0.41245412826538086,-0.39985334873199463,-0.3872525691986084,-0.37465178966522217,-0.36205101013183594,-0.3494502305984497,-0.3368494510650635,-0.32424867153167725,-0.311647891998291,-0.2990471124649048,-0.28644633293151855,-0.2738455533981323,-0.2612447738647461,-0.24864399433135986,-0.23604321479797363,-0.2234424352645874,-0.21084165573120117,-0.19824087619781494,-0.1856400966644287,-0.17303931713104248,-0.16043853759765625,-0.14783775806427002,-0.1352369785308838,-0.12263619899749756,-0.11003541946411133,-0.0974346399307251,-0.08483386039733887,-0.07223308086395264,-0.059632301330566406,-0.047031521797180176,-0.034430742263793945,-0.021829992532730103,-0.009229212999343872,0.0033715665340423584,0.01597234606742859,0.02857312560081482,0.04117390513420105,0.05377468466758728,0.06637546420097351,0.07897624373435974,0.09157702326774597,0.1041778028011322,0.11677858233451843,0.12937936186790466,0.1419801414012909,0.15458092093467712,0.16718170046806335,0.17978248000144958,0.19238325953483582,0.20498403906822205,0.21758481860160828,0.2301855981349945,0.24278637766838074,0.25538715720176697,0.2679879367351532,0.28058871626853943,0.29318949580192566,0.3057902753353119,0.3183910548686981,0.33099183440208435,0.3435926139354706,0.3561933934688568,0.36879417300224304,0.3813949525356293],"_type":"histogram","values":[1,0,0,0,0,1,1,1,5,5,4,8,14,17,23,32,60,76,93,148,223,328,448,580,818,1102,1505,2054,2821,3767,6912,10397,11284,11518,11583,10837,6680,4761,3619,2609,1911,1254,903,628,435,282,208,140,86,58,39,24,16,12,8,6,2,1,0,2,0,1,0,1]},"parameters/fc1.bias":{"values":[1,1,1,1,1,0,2,1,0,3,1,0,5,0,1,1,2,0,6,4,8,9,9,6,5,7,2,0,0,3,2,5,2,4,3,2,1,2,1,2,3,3,3,1,0,0,2,1,2,1,2,2,0,1,1,0,0,0,0,0,1,0,0,1],"bins":[-0.2553965151309967,-0.24441631138324738,-0.23343609273433685,-0.22245588898658752,-0.211475670337677,-0.20049546658992767,-0.18951526284217834,-0.17853504419326782,-0.1675548404455185,-0.15657463669776917,-0.14559441804885864,-0.13461421430110931,-0.12363400310277939,-0.11265379190444946,-0.10167358815670013,-0.09069337695837021,-0.07971316576004028,-0.06873295456171036,-0.05775274708867073,-0.046772539615631104,-0.03579232841730118,-0.0248121190816164,-0.013831909745931625,-0.002851700410246849,0.008128508925437927,0.019108718261122704,0.03008892759680748,0.04106913506984711,0.05204934626817703,0.06302955746650696,0.07400976121425629,0.08498997241258621,0.09597021341323853,0.10695042461156845,0.11793063580989838,0.1289108395576477,0.13989105820655823,0.15087126195430756,0.16185146570205688,0.1728316843509674,0.18381188809871674,0.19479209184646606,0.2057723104953766,0.21675251424312592,0.22773271799087524,0.23871293663978577,0.2496931403875351,0.2606733441352844,0.27165356278419495,0.28263378143310547,0.2936139702796936,0.3045941889286041,0.31557440757751465,0.3265545964241028,0.3375348150730133,0.34851503372192383,0.35949522256851196,0.3704754412174225,0.381455659866333,0.39243587851524353,0.40341606736183167,0.4143962860107422,0.4253765046596527,0.43635669350624084,0.44733691215515137],"_type":"histogram"},"parameters/fc2.bias":{"_type":"histogram","values":[1,0,0,1,0,0,0,0,1,0,0,0,0,1,0,0,0,0,0,0,2,0,0,1,0,0,1,0,0,0,1,0,0,0,0,0,0,0,0,0,0,0,0,0,0,0,0,0,0,0,0,0,0,0,0,0,0,0,0,0,0,0,0,1],"bins":[-0.20855677127838135,-0.19982565939426422,-0.1910945475101471,-0.18236342072486877,-0.17363230884075165,-0.16490119695663452,-0.1561700850725174,-0.14743897318840027,-0.13870784640312195,-0.12997673451900482,-0.1212456226348877,-0.11251451075077057,-0.10378339886665344,-0.09505227953195572,-0.08632116764783859,-0.07759004831314087,-0.06885893642902374,-0.06012782081961632,-0.05139670521020889,-0.042665593326091766,-0.03393447771668434,-0.025203362107276917,-0.01647224836051464,-0.0077411336824297905,0.0009899809956550598,0.00972109567373991,0.01845221035182476,0.027183324098587036,0.03591443970799446,0.044645555317401886,0.05337666720151901,0.06210778281092644,0.07083889842033386,0.07957001030445099,0.08830112963914871,0.09703224152326584,0.10576336085796356,0.11449447274208069,0.12322558462619781,0.13195669651031494,0.14068782329559326,0.1494189351797104,0.15815004706382751,0.16688115894794464,0.17561227083206177,0.1843433827161789,0.19307450950145721,0.20180562138557434,0.21053673326969147,0.2192678451538086,0.22799895703792572,0.23673008382320404,0.24546119570732117,0.2541922926902771,0.2629234194755554,0.27165454626083374,0.2803856432437897,0.289116770029068,0.2978478670120239,0.30657899379730225,0.31531012058258057,0.3240412175655365,0.3327723443508148,0.34150344133377075,0.3502345681190491]},"_runtime":10.249960354,"_timestamp":1.762984790017412e+09,"_step":0,"gradients/fc1.bias":{"values":[3,1,0,1,2,1,1,3,2,2,0,4,0,0,2,0,4,3,0,1,2,3,1,0,3,1,2,0,1,5,3,34,1,5,1,0,1,4,2,0,0,1,0,2,2,1,0,2,3,1,1,0,0,2,3,1,3,2,1,1,0,2,0,1],"bins":[-0.019200900569558144,-0.018594469875097275,-0.017988037317991257,-0.01738160476088524,-0.01677517406642437,-0.0161687433719635,-0.015562310814857483,-0.01495587918907404,-0.014349447563290596,-0.013743015937507153,-0.013136584311723709,-0.012530152685940266,-0.011923721060156822,-0.011317289434373379,-0.010710857808589935,-0.010104426182806492,-0.009497994557023048,-0.008891562931239605,-0.008285131305456161,-0.007678699679672718,-0.007072268053889275,-0.006465836428105831,-0.005859404802322388,-0.005252973176538944,-0.004646541550755501,-0.004040109924972057,-0.003433678299188614,-0.0028272466734051704,-0.002220815047621727,-0.0016143834218382835,-0.00100795179605484,-0.00040152017027139664,0.00020490959286689758,0.000811341218650341,0.0014177728444337845,0.002024204470217228,0.0026306360960006714,0.003237067721784115,0.0038434993475675583,0.004449930973351002,0.005056362599134445,0.005662794224917889,0.006269225850701332,0.0068756574764847755,0.007482089102268219,0.008088520728051662,0.008694952353835106,0.00930138397961855,0.009907815605401993,0.010514247231185436,0.01112067885696888,0.011727110482752323,0.012333542108535767,0.01293997373431921,0.013546405360102654,0.014152836985886097,0.01475926861166954,0.015365700237452984,0.015972131863236427,0.016578562557697296,0.017184995114803314,0.017791427671909332,0.0183978583663702,0.01900428906083107,0.019610721617937088],"_type":"histogram"},"gradients/fc1.weight":{"values":[7,8,12,16,29,42,57,76,142,230,333,447,516,517,569,618,740,851,864,1035,1073,1093,1230,1446,1535,1722,2165,1903,2551,3125,3884,45073,3826,2952,2083,1660,1669,1355,1254,1306,1122,1141,1086,976,942,870,748,652,583,448,367,317,238,173,128,124,102,102,83,70,40,17,7,2],"bins":[-0.017817461863160133,-0.017252713441848755,-0.016687963157892227,-0.01612321473658085,-0.015558465383946896,-0.014993716031312943,-0.014428967610001564,-0.013864218257367611,-0.013299468904733658,-0.012734719552099705,-0.012169970199465752,-0.011605221778154373,-0.01104047242552042,-0.010475723072886467,-0.009910974651575089,-0.009346225298941135,-0.008781475946307182,-0.00821672659367323,-0.007651977706700563,-0.007087228819727898,-0.0065224794670939445,-0.0059577301144599915,-0.005392981227487326,-0.00482823234051466,-0.004263482987880707,-0.0036987338680773973,-0.003133984748274088,-0.0025692356284707785,-0.002004486508667469,-0.0014397373888641596,-0.0008749882690608501,-0.0003102391492575407,0.0002545081079006195,0.000819257227703929,0.0013840063475072384,0.0019487554673105478,0.0025135045871138573,0.0030782537069171667,0.003643002826720476,0.004207751713693142,0.004772501066327095,0.005337250418961048,0.005901999305933714,0.00646674819290638,0.007031497545540333,0.007596246898174286,0.008160995319485664,0.008725744672119617,0.00929049402475357,0.009855243377387524,0.010419992730021477,0.010984741151332855,0.011549490503966808,0.012114239856600761,0.01267898827791214,0.013243737630546093,0.013808486983180046,0.014373236335814,0.014937985688447952,0.01550273410975933,0.01606748253107071,0.016632232815027237,0.017196981236338615,0.017761731520295143,0.01832647994160652],"_type":"histogram"},"parameters/fc2.weight":{"bins":[-0.47545596957206726,-0.4609551429748535,-0.4464542865753174,-0.43195345997810364,-0.4174526333808899,-0.40295180678367615,-0.3884509801864624,-0.37395012378692627,-0.3594492971897125,-0.3449484705924988,-0.33044761419296265,-0.3159467875957489,-0.30144596099853516,-0.2869451344013214,-0.27244430780410767,-0.25794345140457153,-0.2434426248073578,-0.22894179821014404,-0.2144409567117691,-0.19994011521339417,-0.18543928861618042,-0.17093846201896667,-0.15643762052059174,-0.1419367790222168,-0.12743595242500305,-0.11293511837720871,-0.09843428432941437,-0.08393345028162003,-0.06943261623382568,-0.05493178218603134,-0.040430948138237,-0.025930114090442657,-0.011429280042648315,0.0030715540051460266,0.01757238805294037,0.03207322210073471,0.04657405614852905,0.061074890196323395,0.07557572424411774,0.09007655829191208,0.10457739233970642,0.11907822638750076,0.1335790604352951,0.14807990193367004,0.1625807285308838,0.17708155512809753,0.19158239662647247,0.2060832381248474,0.22058406472206116,0.2350848913192749,0.24958573281764984,0.2640865743160248,0.2785874009132385,0.29308822751045227,0.307589054107666,0.32208991050720215,0.3365907371044159,0.35109156370162964,0.36559242010116577,0.3800932466983795,0.39459407329559326,0.409094899892807,0.42359572649002075,0.4380965828895569,0.45259740948677063],"_type":"histogram","values":[1,0,0,0,0,0,0,3,1,1,1,6,5,4,12,10,8,11,12,17,26,15,22,38,42,27,46,55,70,73,63,79,59,77,60,82,64,82,65,45,32,22,19,8,6,3,1,1,2,1,0,1,0,1,0,0,0,0,0,0,0,0,0,1]},"gradients/fc2.bias":{"values":[1,0,0,0,0,0,0,0,0,0,0,0,0,0,0,0,0,0,0,0,1,0,0,0,0,1,0,0,0,0,0,1,1,0,0,0,0,0,0,0,0,0,0,0,1,0,0,1,0,0,1,0,0,0,0,0,0,1,0,0,0,0,0,1],"bins":[-0.11176462471485138,-0.1087794080376625,-0.10579419881105423,-0.10280898213386536,-0.09982377290725708,-0.0968385562300682,-0.09385333955287933,-0.09086813032627106,-0.08788291364908218,-0.08489769697189331,-0.08191248774528503,-0.07892727106809616,-0.07594205439090729,-0.07295684516429901,-0.06997162848711014,-0.06698641926050186,-0.06400120258331299,-0.06101598963141441,-0.05803077667951584,-0.055045560002326965,-0.05206034705042839,-0.049075134098529816,-0.04608991742134094,-0.04310470446944237,-0.04011949151754379,-0.03713427856564522,-0.03414906561374664,-0.03116384893655777,-0.028178635984659195,-0.02519342303276062,-0.022208208218216896,-0.019222993403673172,-0.016237780451774597,-0.013252566568553448,-0.010267352685332298,-0.007282138802111149,-0.004296924918889999,-0.00131171103566885,0.0016735028475522995,0.004658716730773449,0.007643930613994598,0.010629144497215748,0.013614358380436897,0.01659957319498062,0.019584786146879196,0.02256999909877777,0.025555213913321495,0.02854042872786522,0.031525641679763794,0.03451085463166237,0.037496067583560944,0.04048128426074982,0.04346649721264839,0.04645171016454697,0.04943692684173584,0.052422139793634415,0.05540735274553299,0.058392565697431564,0.06137777864933014,0.06436299532651901,0.06734821200370789,0.07033342123031616,0.07331863790750504,0.07630384713411331,0.07928906381130219],"_type":"histogram"},"gradients/fc2.weight":{"values":[1,0,0,1,0,0,0,0,1,1,0,1,1,0,0,2,0,0,0,1,2,2,1,5,3,1,0,3,5,10,8,9,12,22,26,37,42,73,616,135,76,39,35,25,20,16,11,5,5,3,8,4,1,2,0,5,0,0,0,2,0,0,0,2],"bins":[-0.7000510692596436,-0.6819707751274109,-0.663890540599823,-0.6458102464675903,-0.6277299523353577,-0.609649658203125,-0.5915694236755371,-0.5734891295433044,-0.5554088354110718,-0.5373286008834839,-0.5192483067512512,-0.5011680126190186,-0.4830877482891083,-0.4650074541568756,-0.44692718982696533,-0.42884689569473267,-0.4107666313648224,-0.3926863670349121,-0.37460607290267944,-0.35652580857276917,-0.3384455144405365,-0.3203652501106262,-0.30228495597839355,-0.2842046916484833,-0.266124427318573,-0.24804413318634033,-0.22996385395526886,-0.2118835747241974,-0.1938033103942871,-0.17572303116321564,-0.15764275193214417,-0.1395624727010727,-0.12148222327232361,-0.10340194404125214,-0.08532166481018066,-0.06724139302968979,-0.04916111379861832,-0.031080836430191994,-0.01300055906176567,0.005079718306660652,0.023159995675086975,0.04124027490615845,0.05932055041193962,0.0774008259177208,0.09548110514879227,0.11356138437986374,0.13164165616035461,0.1497219353914261,0.16780221462249756,0.18588249385356903,0.2039627730846405,0.22204305231571198,0.24012333154678345,0.2582035958766937,0.2762838900089264,0.29436415433883667,0.31244444847106934,0.3305247128009796,0.3486049771308899,0.36668527126312256,0.38476553559303284,0.4028458297252655,0.4209260940551758,0.43900638818740845,0.4570866525173187],"_type":"histogram"},"_wandb":{"runtime":10}}